0.12    0.24    0.38    0.20    -0.10   -0.15   0.06    0.01    -0.07   0.10    -0.10   -0.20   0.28    0.19    -0.19   -0.13   0.11    -0.02   -0.01   0.10   
0.51    0.61    0.37    0.69    0.35    0.32    0.41    0.49    0.39    0.33    0.25    0.32    0.38    0.55    0.53    0.52    0.27    0.25    0.44    0.43   
0.40    0.09    0.19    0.49    0.09    0.13    0.22    0.25    0.22    0.36    -0.10   0.02    0.11    0.50    0.10    0.27    0.08    -0.05   0.11    0.21   
0.11    0.25    0.37    0.19    -0.10   -0.17   0.06    0.00    -0.07   0.10    -0.10   -0.21   0.28    0.17    -0.21   -0.13   0.10    -0.02   -0.03   0.09   
-0.25   0.34    0.25    -0.05   -0.02   0.00    -0.09   -0.10   -0.03   -0.49   -0.12   -0.08   -0.08   -0.06   -0.41   -0.24   -0.05   -0.26   -0.23   -0.15  
0.33    0.43    0.29    0.49    0.27    0.08    0.32    0.31    0.19    0.42    0.06    0.13    0.26    0.60    0.30    0.32    0.19    0.04    0.28    0.29   
-0.23   0.33    0.13    -0.06   -0.06   0.02    0.06    -0.08   0.17    -0.39   -0.20   -0.22   -0.05   -0.10   -0.37   -0.19   -0.04   -0.23   -0.20   -0.12  
0.88    0.99    0.77    0.97    0.51    0.72    0.79    0.75    0.92    0.63    0.71    0.77    0.76    0.92    0.76    0.76    0.76    0.58    0.82    0.78   
1.01    0.99    1.02    1.19    0.72    0.87    1.02    0.83    1.08    0.78    0.92    0.97    0.81    0.87    1.06    0.76    0.88    0.70    1.01    0.93   
-0.01   0.06    -0.20   -0.05   -0.38   -0.10   -0.05   -0.25   -0.31   0.06    -0.32   -0.38   -0.31   -0.10   -0.36   -0.23   -0.41   -0.42   -0.44   -0.23  
0.65    0.75    0.56    0.81    0.45    0.53    0.60    0.59    0.60    0.52    0.47    0.53    0.64    0.67    0.50    0.60    0.53    0.39    0.62    0.58   
0.03    0.13    0.66    1.14    -0.13   -0.22   0.53    -0.16   0.35    -0.08   -0.91   -0.46   0.04    -0.07   -0.21   -0.27   -0.48   -0.75   0.13    0.06   
0.09    0.13    0.35    0.41    0.07    0.06    0.02    0.18    0.15    0.17    0.03    -0.23   0.30    0.39    -0.12   -0.01   0.19    -0.07   -0.03   0.14   
0.93    0.91    0.95    1.11    0.65    0.80    0.95    0.75    1.00    0.71    0.84    0.90    0.73    0.78    0.99    0.68    0.81    0.63    0.93    0.85   
-1.04   -1.00   -0.75   -0.80   -0.81   -0.84   -0.77   -0.93   -0.84   -0.82   -0.81   -0.79   -0.89   -0.97   -0.75   -0.91   -0.91   -0.77   -0.84   -0.86  
-0.83   -0.83   -0.83   -0.83   -0.83   -0.83   -0.83   -0.83   -0.83   -0.83   -0.83   -0.83   -0.83   -0.83   -0.83   -0.83   -0.83   -0.83   -0.83   -0.83  
-0.96   -0.96   -0.96   -0.96   -0.96   -0.96   -0.96   -0.96   -0.96   -0.96   -0.96   -0.96   -0.96   -0.96   -0.96   -0.96   -0.96   -0.96   -0.96   -0.96  
0.67    0.67    0.67    0.67    0.67    0.67    0.67    0.67    0.67    0.67    0.67    0.67    0.67    0.67    0.67    0.67    0.67    0.67    0.67    0.67   
0.56    0.56    0.56    0.56    0.56    0.56    0.56    0.56    0.56    0.56    0.56    0.56    0.56    0.56    0.56    0.56    0.56    0.56    0.56    0.56   
0.74    0.74    0.74    0.74    0.74    0.74    0.74    0.74    0.74    0.74    0.74    0.74    0.74    0.74    0.74    0.74    0.74    0.74    0.74    0.74   
0.97    0.98    1.03    0.96    0.90    0.99    1.08    0.94    0.88    0.66    0.96    1.11    0.97    0.94    0.42    0.96    0.96    0.96    0.96    0.96   
0.64    0.64    0.68    0.65    0.56    0.61    0.57    0.59    0.55    0.21    0.59    0.54    0.59    0.56    0.18    0.60    0.60    0.60    0.60    0.60   
-0.91   0.42    -0.35   -1.06   -0.92   0.32    -0.51   0.53    1.04    1.72    0.31    -0.88   -0.73   0.99    0.69    -0.08   -0.08   -0.08   -0.08   -0.08  
0.63    0.56    0.54    0.64    0.61    0.52    0.40    0.54    0.50    0.02    0.54    0.26    0.54    0.51    0.06    0.56    0.56    0.56    0.56    0.56   
-0.76   -0.83   -1.07   -0.75   -0.89   -0.86   -1.48   -0.69   -0.62   -0.29   -0.76   -1.20   -0.78   -0.71   0.49    -0.76   -0.76   -0.76   -0.76   -0.76  
1.31    -0.31   -0.63   1.32    2.11    -0.32   0.30    0.07    0.01    -0.23   0.00    -0.85   1.12    0.01    -0.48   0.28    0.28    0.28    0.28    0.28   
-0.70   -0.78   -1.02   -0.70   -0.85   -0.82   -1.44   -0.64   -0.57   -0.30   -0.70   -1.13   -0.72   -0.65   0.44    -0.71   -0.71   -0.71   -0.71   -0.71  
0.90    0.92    0.98    0.90    0.82    0.93    1.03    0.88    0.82    0.60    0.89    1.06    0.90    0.87    0.36    0.89    0.89    0.89    0.89    0.89   
-0.56   0.40    -0.58   -0.73   -0.50   0.54    -0.90   0.61    0.98    1.99    0.50    -2.11   -0.31   0.92    0.31    0.04    0.04    0.04    0.04    0.04   
-1.36   0.31    0.22    -1.42   -2.06   0.17    -0.76   0.18    0.33    0.31    0.03    0.22    -1.35   0.26    0.82    -0.17   -0.17   -0.17   -0.17   -0.17  
-0.45   -0.27   -0.53   -0.47   -0.92   -0.42   -0.92   -0.25   -0.18   -0.22   -0.34   -0.10   -0.53   -0.22   0.38    -0.47   -0.47   -0.47   -0.47   -0.47  
0.63    0.52    0.46    0.64    0.66    0.48    0.34    0.52    0.48    -0.07   0.52    0.11    0.52    0.48    -0.01   0.55    0.55    0.55    0.55    0.55   
-0.87   0.41    -0.25   -1.00   -1.01   0.29    -0.47   0.48    0.90    1.56    0.27    -0.63   -0.73   0.84    0.70    -0.09   -0.09   -0.09   -0.09   -0.09  
0.39    0.34    1.11    0.50    -2.28   1.60    -2.25   0.44    -1.02   1.31    0.45    -0.98   0.93    -1.13   -0.31   0.14    0.14    0.14    0.14    0.14   
-0.97   -1.00   -1.23   -0.96   -1.06   -1.03   -1.58   -0.89   -0.81   -0.25   -0.96   -1.35   -0.97   -0.92   0.60    -0.96   -0.96   -0.96   -0.96   -0.96  
0.24    0.24    0.24    0.24    0.24    0.24    0.24    0.24    0.24    0.24    0.24    0.24    0.24    0.24    0.24    0.24    0.24    0.24    0.24    0.24   
0.22    0.22    0.22    0.22    0.22    0.22    0.22    0.22    0.22    0.22    0.22    0.22    0.22    0.22    0.22    0.22    0.22    0.22    0.22    0.22   
0.23    0.23    0.23    0.23    0.23    0.23    0.23    0.23    0.23    0.23    0.23    0.23    0.23    0.23    0.23    0.23    0.23    0.23    0.23    0.23   
0.89    0.89    0.89    0.89    0.89    0.89    0.89    0.89    0.89    0.89    0.89    0.89    0.89    0.89    0.89    0.89    0.89    0.89    0.89    0.89   
0.36    0.36    0.36    0.36    0.36    0.36    0.36    0.36    0.36    0.36    0.36    0.36    0.36    0.36    0.36    0.36    0.36    0.36    0.36    0.36   
-0.64   -0.23   -1.66   -0.11   -0.85   -0.08   -0.91   -0.60   -0.73   -1.54   -1.40   -0.06   -1.66   4.51    -0.69   -0.28   -0.28   -0.28   -0.28   -0.28  
0.27    0.54    -2.57   0.57    -0.77   1.31    -0.81   0.31    -2.79   -2.02   -1.03   0.59    -2.53   -3.00   -0.61   -0.13   -0.13   -0.13   -0.13   -0.13  
-1.61   -1.55   1.09    -1.45   2.09    -0.48   2.08    -1.63   0.87    1.21    1.77    -1.39   1.10    -0.29   2.08    0.40    0.40    0.40    0.40    0.40   
-0.73   -0.73   1.63    -0.63   -1.04   1.01    -1.03   -0.74   2.76    -2.27   -1.37   -0.55   1.13    -1.72   -1.07   -0.88   -0.88   -0.88   -0.88   -0.88  
0.69    -0.24   1.14    -0.64   -2.06   -3.92   -1.89   0.64    -0.20   2.08    -0.25   -0.83   1.31    -0.66   -2.44   0.33    0.33    0.33    0.33    0.33   
0.34    0.34    0.34    0.34    0.34    0.34    0.34    0.34    0.34    0.34    0.34    0.34    0.34    0.34    0.34    0.34    0.34    0.34    0.34    0.34   
-0.58   -0.58   -0.58   -0.58   -0.58   -0.58   -0.58   -0.58   -0.58   -0.58   -0.58   -0.58   -0.58   -0.58   -0.58   -0.58   -0.58   -0.58   -0.58   -0.58  
-0.74   -0.74   -0.74   -0.74   -0.74   -0.74   -0.74   -0.74   -0.74   -0.74   -0.74   -0.74   -0.74   -0.74   -0.74   -0.74   -0.74   -0.74   -0.74   -0.74  
-0.37   -0.37   -0.37   -0.37   -0.37   -0.37   -0.37   -0.37   -0.37   -0.37   -0.37   -0.37   -0.37   -0.37   -0.37   -0.37   -0.37   -0.37   -0.37   -0.37  
-0.27   -0.27   -0.27   -0.27   -0.27   -0.27   -0.27   -0.27   -0.27   -0.27   -0.27   -0.27   -0.27   -0.27   -0.27   -0.27   -0.27   -0.27   -0.27   -0.27  
0.14    0.14    0.14    0.14    0.14    0.14    0.14    0.14    0.14    0.14    0.14    0.14    0.14    0.14    0.14    0.14    0.14    0.14    0.14    0.14   
-0.12   -0.12   -0.12   -0.12   -0.12   -0.12   -0.12   -0.12   -0.12   -0.12   -0.12   -0.12   -0.12   -0.12   -0.12   -0.12   -0.12   -0.12   -0.12   -0.12  
0.98    0.98    0.98    0.98    0.98    0.98    0.98    0.98    0.98    0.98    0.98    0.98    0.98    0.98    0.98    0.98    0.98    0.98    0.98    0.98   
-0.80   -0.80   -0.80   -0.80   -0.80   -0.80   -0.80   -0.80   -0.80   -0.80   -0.80   -0.80   -0.80   -0.80   -0.80   -0.80   -0.80   -0.80   -0.80   -0.80  
-0.58   -0.58   -0.58   -0.58   -0.58   -0.58   -0.58   -0.58   -0.58   -0.58   -0.58   -0.58   -0.58   -0.58   -0.58   -0.58   -0.58   -0.58   -0.58   -0.58  
-0.68   -0.68   -0.68   -0.68   -0.68   -0.68   -0.68   -0.68   -0.68   -0.68   -0.68   -0.68   -0.68   -0.68   -0.68   -0.68   -0.68   -0.68   -0.68   -0.68  
0.31    0.31    0.31    0.31    0.31    0.31    0.31    0.31    0.31    0.31    0.31    0.31    0.31    0.31    0.31    0.31    0.31    0.31    0.31    0.31   
-0.49   -0.49   -0.49   -0.49   -0.49   -0.49   -0.49   -0.49   -0.49   -0.49   -0.49   -0.49   -0.49   -0.49   -0.49   -0.49   -0.49   -0.49   -0.49   -0.49  
-0.07   -0.07   -0.07   -0.07   -0.07   -0.07   -0.07   -0.07   -0.07   -0.07   -0.07   -0.07   -0.07   -0.07   -0.07   -0.07   -0.07   -0.07   -0.07   -0.07  
-0.51   -0.51   -0.51   -0.51   -0.51   -0.51   -0.51   -0.51   -0.51   -0.51   -0.51   -0.51   -0.51   -0.51   -0.51   -0.51   -0.51   -0.51   -0.51   -0.51  
